digraph Tree {
node [shape=box] ;
0 [label="receiving_blood_transfusion <= 0.5\ngini = 0.976\nsamples = 6594\nvalue = [161, 149, 154, 159, 170, 155, 155, 168, 165, 163\n157, 147, 161, 169, 160, 156, 159, 152, 176, 178\n164, 151, 172, 155, 165, 142, 170, 155, 169, 161\n164, 158, 172, 161, 161, 166, 164, 162, 162, 144\n162]"] ;
1 [label="stomach_bleeding <= 0.5\ngini = 0.975\nsamples = 6416\nvalue = [161, 149, 154, 159, 170, 155, 155, 168, 165, 163\n157, 147, 161, 169, 160, 156, 159, 152, 176, 0\n164, 151, 172, 155, 165, 142, 170, 155, 169, 161\n164, 158, 172, 161, 161, 166, 164, 162, 162, 144\n162]"] ;
0 -> 1 [labeldistance=2.5, labelangle=45, headlabel="True"] ;
2 [label="swollen_extremeties <= 0.5\ngini = 0.974\nsamples = 6244\nvalue = [161, 149, 154, 159, 170, 155, 155, 168, 165, 163\n157, 147, 161, 169, 160, 156, 159, 152, 176, 0\n164, 151, 0, 155, 165, 142, 170, 155, 169, 161\n164, 158, 172, 161, 161, 166, 164, 162, 162, 144\n162]"] ;
1 -> 2 ;
3 [label="abnormal_menstruation <= 0.5\ngini = 0.974\nsamples = 6074\nvalue = [161, 149, 154, 159, 170, 155, 155, 168, 165, 163\n157, 147, 161, 169, 160, 156, 159, 152, 176, 0\n164, 151, 0, 155, 165, 142, 0, 155, 169, 161, 164\n158, 172, 161, 161, 166, 164, 162, 162, 144, 162]"] ;
2 -> 3 ;
4 [label="blood_in_sputum <= 0.5\ngini = 0.973\nsamples = 5909\nvalue = [161, 149, 154, 159, 170, 155, 155, 168, 165, 163\n157, 147, 161, 169, 160, 156, 159, 152, 176, 0\n164, 151, 0, 155, 0, 142, 0, 155, 169, 161, 164\n158, 172, 161, 161, 166, 164, 162, 162, 144, 162]"] ;
3 -> 4 ;
5 [label="bloody_stool <= 0.5\ngini = 0.972\nsamples = 5745\nvalue = [161, 149, 154, 159, 170, 155, 155, 168, 165, 163\n157, 147, 161, 169, 160, 156, 159, 152, 176, 0\n164, 151, 0, 155, 0, 142, 0, 155, 169, 161, 164\n158, 172, 161, 161, 166, 0, 162, 162, 144, 162]"] ;
4 -> 5 ;
6 [label="altered_sensorium <= 0.5\ngini = 0.971\nsamples = 5581\nvalue = [161, 149, 154, 159, 170, 155, 155, 168, 165, 163\n157, 147, 161, 5, 160, 156, 159, 152, 176, 0, 164\n151, 0, 155, 0, 142, 0, 155, 169, 161, 164, 158\n172, 161, 161, 166, 0, 162, 162, 144, 162]"] ;
5 -> 6 ;
7 [label="increased_appetite <= 0.5\ngini = 0.971\nsamples = 5418\nvalue = [161, 149, 154, 159, 170, 155, 155, 168, 165, 163\n157, 147, 161, 5, 160, 156, 159, 152, 176, 0, 164\n151, 0, 155, 0, 142, 0, 155, 169, 161, 164, 158\n9, 161, 161, 166, 0, 162, 162, 144, 162]"] ;
6 -> 7 ;
8 [label="weight_loss <= 0.5\ngini = 0.97\nsamples = 5257\nvalue = [161, 149, 154, 159, 170, 155, 155, 168, 165, 163\n157, 147, 0, 5, 160, 156, 159, 152, 176, 0, 164\n151, 0, 155, 0, 142, 0, 155, 169, 161, 164, 158\n9, 161, 161, 166, 0, 162, 162, 144, 162]"] ;
7 -> 8 ;
9 [label="rusty_sputum <= 0.5\ngini = 0.969\nsamples = 5095\nvalue = [161, 149, 154, 159, 170, 155, 155, 168, 165, 163\n157, 147, 0, 5, 160, 156, 159, 152, 176, 0, 164\n151, 0, 155, 0, 142, 0, 155, 7, 161, 164, 158, 9\n161, 161, 166, 0, 162, 162, 144, 162]"] ;
8 -> 9 ;
10 [label="small_dents_in_nails <= 0.5\ngini = 0.968\nsamples = 4934\nvalue = [161, 149, 154, 159, 170, 155, 155, 168, 165, 163\n157, 147, 0, 5, 160, 156, 159, 152, 176, 0, 164\n151, 0, 155, 0, 142, 0, 155, 7, 161, 164, 158, 9\n161, 0, 166, 0, 162, 162, 144, 162]"] ;
9 -> 10 ;
11 [label="continuous_feel_of_urine <= 0.5\ngini = 0.967\nsamples = 4774\nvalue = [161, 149, 154, 159, 170, 155, 155, 168, 165, 163\n157, 147, 0, 5, 160, 156, 159, 152, 176, 0, 164\n151, 0, 155, 0, 142, 0, 155, 7, 161, 164, 158, 9\n161, 0, 6, 0, 162, 162, 144, 162]"] ;
10 -> 11 ;
12 [label="visual_disturbances <= 0.5\ngini = 0.966\nsamples = 4615\nvalue = [161, 149, 154, 159, 170, 155, 155, 168, 165, 163\n157, 147, 0, 5, 160, 156, 159, 152, 176, 0, 164\n151, 0, 155, 0, 142, 0, 155, 7, 161, 164, 158, 9\n161, 0, 6, 0, 162, 3, 144, 162]"] ;
11 -> 12 ;
13 [label="lethargy <= 0.5\ngini = 0.965\nsamples = 4457\nvalue = [161, 149, 154, 159, 170, 155, 155, 168, 165, 163\n157, 147, 0, 5, 160, 156, 159, 152, 176, 0, 164\n151, 0, 155, 0, 142, 0, 155, 7, 161, 6, 158, 9\n161, 0, 6, 0, 162, 3, 144, 162]"] ;
12 -> 13 ;
14 [label="loss_of_smell <= 0.5\ngini = 0.964\nsamples = 4299\nvalue = [161, 149, 154, 159, 170, 155, 155, 168, 7, 163\n157, 147, 0, 5, 160, 156, 159, 152, 176, 0, 164\n151, 0, 155, 0, 142, 0, 155, 7, 161, 6, 158, 9\n161, 0, 6, 0, 162, 3, 144, 162]"] ;
13 -> 14 ;
15 [label="unsteadiness <= 0.5\ngini = 0.962\nsamples = 4142\nvalue = [161, 149, 154, 159, 170, 155, 155, 168, 7, 163, 0\n147, 0, 5, 160, 156, 159, 152, 176, 0, 164, 151\n0, 155, 0, 142, 0, 155, 7, 161, 6, 158, 9, 161\n0, 6, 0, 162, 3, 144, 162]"] ;
14 -> 15 ;
16 [label="mild_fever <= 0.5\ngini = 0.961\nsamples = 3986\nvalue = [5, 149, 154, 159, 170, 155, 155, 168, 7, 163, 0\n147, 0, 5, 160, 156, 159, 152, 176, 0, 164, 151\n0, 155, 0, 142, 0, 155, 7, 161, 6, 158, 9, 161\n0, 6, 0, 162, 3, 144, 162]"] ;
15 -> 16 ;
17 [label="toxic_look_(typhos) <= 0.5\ngini = 0.959\nsamples = 3817\nvalue = [5, 149, 154, 159, 170, 155, 155, 168, 0, 163, 0\n147, 0, 5, 160, 156, 159, 152, 176, 0, 164, 151\n0, 155, 0, 142, 0, 155, 7, 161, 6, 158, 9, 161\n0, 6, 0, 162, 3, 144, 0]"] ;
16 -> 17 ;
18 [label="neck_pain <= 0.5\ngini = 0.958\nsamples = 3662\nvalue = [5, 149, 154, 159, 170, 155, 155, 168, 0, 163, 0\n147, 0, 5, 160, 156, 159, 152, 176, 0, 164, 151\n0, 155, 0, 142, 0, 155, 7, 161, 6, 158, 9, 161\n0, 6, 0, 7, 3, 144, 0]"] ;
17 -> 18 ;
19 [label="internal_itching <= 0.5\ngini = 0.954\nsamples = 3352\nvalue = [5, 149, 154, 159, 170, 155, 155, 9, 0, 163, 0\n147, 0, 5, 160, 156, 159, 152, 176, 0, 164, 151\n0, 155, 0, 142, 0, 155, 7, 161, 6, 7, 9, 161\n0, 6, 0, 7, 3, 144, 0]"] ;
18 -> 19 ;
20 [label="fluid_overload.1 <= 0.5\ngini = 0.952\nsamples = 3198\nvalue = [5, 149, 154, 159, 170, 155, 155, 9, 0, 163, 0\n147, 0, 5, 160, 156, 159, 152, 176, 0, 164, 151\n0, 155, 0, 142, 0, 155, 7, 161, 6, 7, 9, 7, 0\n6, 0, 7, 3, 144, 0]"] ;
19 -> 20 ;
21 [label="continuous_sneezing <= 0.5\ngini = 0.95\nsamples = 3045\nvalue = [5, 149, 154, 6, 170, 155, 155, 9, 0, 163, 0, 147\n0, 5, 160, 156, 159, 152, 176, 0, 164, 151, 0\n155, 0, 142, 0, 155, 7, 161, 6, 7, 9, 7, 0, 6\n0, 7, 3, 144, 0]"] ;
20 -> 21 ;
22 [label="muscle_pain <= 0.5\ngini = 0.948\nsamples = 2892\nvalue = [5, 149, 154, 6, 17, 155, 155, 9, 0, 163, 0, 147\n0, 5, 160, 156, 159, 152, 176, 0, 164, 151, 0\n155, 0, 142, 0, 155, 7, 161, 6, 7, 9, 7, 0, 6\n0, 7, 3, 144, 0]"] ;
21 -> 22 ;
23 [label="blister <= 0.5\ngini = 0.942\nsamples = 2591\nvalue = [5, 149, 154, 6, 17, 155, 155, 9, 0, 163, 0, 7\n0, 5, 160, 156, 159, 152, 176, 0, 164, 151, 0\n155, 0, 142, 0, 155, 7, 0, 6, 7, 9, 7, 0, 6\n0, 7, 3, 144, 0]"] ;
22 -> 23 ;
24 [label="breathlessness <= 0.5\ngini = 0.939\nsamples = 2441\nvalue = [5, 149, 154, 6, 17, 155, 155, 9, 0, 163, 0, 7\n0, 5, 160, 156, 159, 152, 176, 0, 164, 151, 0\n155, 0, 142, 0, 5, 7, 0, 6, 7, 9, 7, 0, 6, 0\n7, 3, 144, 0]"] ;
23 -> 24 ;
25 [label="movement_stiffness <= 0.5\ngini = 0.932\nsamples = 2136\nvalue = [5, 149, 154, 6, 17, 155, 10, 9, 0, 163, 0, 7\n0, 5, 160, 156, 159, 152, 16, 0, 164, 151, 0\n155, 0, 142, 0, 5, 7, 0, 6, 7, 9, 7, 0, 6, 0\n7, 3, 144, 0]"] ;
24 -> 25 ;
26 [label="family_history <= 0.5\ngini = 0.927\nsamples = 1987\nvalue = [5, 149, 154, 6, 17, 6, 10, 9, 0, 163, 0, 7, 0\n5, 160, 156, 159, 152, 16, 0, 164, 151, 0, 155\n0, 142, 0, 5, 7, 0, 6, 7, 9, 7, 0, 6, 0, 7\n3, 144, 0]"] ;
25 -> 26 ;
27 [label="cough <= 0.5\ngini = 0.922\nsamples = 1822\nvalue = [5, 149, 154, 6, 17, 6, 0, 9, 0, 163, 0, 7, 0\n5, 160, 156, 159, 152, 16, 0, 9, 151, 0, 155, 0\n142, 0, 5, 7, 0, 6, 7, 9, 7, 0, 6, 0, 7, 3\n144, 0]"] ;
26 -> 27 ;
28 [label="lack_of_concentration <= 0.5\ngini = 0.916\nsamples = 1672\nvalue = [5, 149, 154, 6, 17, 6, 0, 9, 0, 163, 0, 7, 0\n5, 160, 156, 9, 152, 16, 0, 9, 151, 0, 155, 0\n142, 0, 5, 7, 0, 6, 7, 9, 7, 0, 6, 0, 7, 3\n144, 0]"] ;
27 -> 28 ;
29 [label="palpitations <= 0.5\ngini = 0.91\nsamples = 1527\nvalue = [5, 149, 154, 6, 17, 6, 0, 9, 0, 163, 0, 7, 0\n5, 160, 156, 9, 152, 16, 0, 9, 151, 0, 10, 0\n142, 0, 5, 7, 0, 6, 7, 9, 7, 0, 6, 0, 7, 3\n144, 0]"] ;
28 -> 29 ;
30 [label="pus_filled_pimples <= 0.5\ngini = 0.901\nsamples = 1385\nvalue = [5, 149, 154, 6, 17, 6, 0, 9, 0, 163, 0, 7, 0\n5, 160, 156, 9, 152, 16, 0, 9, 151, 0, 10, 0\n0, 0, 5, 7, 0, 6, 7, 9, 7, 0, 6, 0, 7, 3\n144, 0]"] ;
29 -> 30 ;
31 [label="spotting_ urination <= 0.5\ngini = 0.892\nsamples = 1242\nvalue = [5, 149, 11, 6, 17, 6, 0, 9, 0, 163, 0, 7, 0\n5, 160, 156, 9, 152, 16, 0, 9, 151, 0, 10, 0\n0, 0, 5, 7, 0, 6, 7, 9, 7, 0, 6, 0, 7, 3\n144, 0]"] ;
30 -> 31 ;
32 [label="cramps <= 0.5\ngini = 0.883\nsamples = 1098\nvalue = [5, 149, 11, 6, 17, 6, 0, 9, 0, 163, 0, 7, 0\n5, 16, 156, 9, 152, 16, 0, 9, 151, 0, 10, 0, 0\n0, 5, 7, 0, 6, 7, 9, 7, 0, 6, 0, 7, 3, 144\n0]"] ;
31 -> 32 ;
33 [label="sunken_eyes <= 0.5\ngini = 0.869\nsamples = 960\nvalue = [5, 149, 11, 6, 17, 6, 0, 9, 0, 163, 0, 7, 0\n5, 16, 156, 9, 152, 16, 0, 9, 151, 0, 10, 0, 0\n0, 5, 7, 0, 6, 7, 9, 7, 0, 6, 0, 7, 3, 6\n0]"] ;
32 -> 33 ;
34 [label="dischromic _patches <= 0.5\ngini = 0.855\nsamples = 821\nvalue = [5, 149, 11, 6, 17, 6, 0, 9, 0, 163, 0, 7, 0\n5, 16, 156, 9, 13, 16, 0, 9, 151, 0, 10, 0, 0\n0, 5, 7, 0, 6, 7, 9, 7, 0, 6, 0, 7, 3, 6\n0]"] ;
33 -> 34 ;
35 [label="dark_urine <= 0.5\ngini = 0.841\nsamples = 681\nvalue = [5, 149, 11, 6, 17, 6, 0, 9, 0, 163, 0, 7, 0\n5, 16, 16, 9, 13, 16, 0, 9, 151, 0, 10, 0, 0\n0, 5, 7, 0, 6, 7, 9, 7, 0, 6, 0, 7, 3, 6\n0]"] ;
34 -> 35 ;
36 [label="yellowing_of_eyes <= 0.5\ngini = 0.82\nsamples = 532\nvalue = [5, 149, 11, 6, 17, 6, 0, 9, 0, 163, 0, 7, 0\n5, 16, 16, 9, 13, 16, 0, 9, 9, 0, 10, 0, 0\n0, 5, 0, 0, 6, 7, 9, 7, 0, 6, 0, 7, 3, 6\n0]"] ;
35 -> 36 ;
37 [label="extra_marital_contacts <= 0.5\ngini = 0.809\nsamples = 357\nvalue = [5, 149, 11, 6, 17, 6, 0, 9, 0, 6, 0, 7, 0, 5\n16, 16, 9, 13, 16, 0, 0, 0, 0, 10, 0, 0, 0\n5, 0, 0, 6, 7, 9, 7, 0, 6, 0, 7, 3, 6, 0]"] ;
36 -> 37 ;
38 [label="watering_from_eyes <= 0.5\ngini = 0.952\nsamples = 222\nvalue = [5, 14, 11, 6, 17, 6, 0, 9, 0, 6, 0, 7, 0, 5\n16, 16, 9, 13, 16, 0, 0, 0, 0, 10, 0, 0, 0\n5, 0, 0, 6, 7, 9, 7, 0, 6, 0, 7, 3, 6, 0]"] ;
37 -> 38 ;
39 [label="sweating <= 0.5\ngini = 0.95\nsamples = 205\nvalue = [5, 14, 11, 6, 0, 6, 0, 9, 0, 6, 0, 7, 0, 5\n16, 16, 9, 13, 16, 0, 0, 0, 0, 10, 0, 0, 0\n5, 0, 0, 6, 7, 9, 7, 0, 6, 0, 7, 3, 6, 0]"] ;
38 -> 39 ;
40 [label="nodal_skin_eruptions <= 0.5\ngini = 0.949\nsamples = 189\nvalue = [5, 14, 11, 6, 0, 6, 0, 9, 0, 6, 0, 7, 0, 5\n16, 16, 9, 13, 0, 0, 0, 0, 0, 10, 0, 0, 0, 5\n0, 0, 6, 7, 9, 7, 0, 6, 0, 7, 3, 6, 0]"] ;
39 -> 40 ;
41 [label="patches_in_throat <= 0.5\ngini = 0.947\nsamples = 173\nvalue = [5, 14, 11, 6, 0, 6, 0, 9, 0, 6, 0, 7, 0, 5\n16, 0, 9, 13, 0, 0, 0, 0, 0, 10, 0, 0, 0, 5\n0, 0, 6, 7, 9, 7, 0, 6, 0, 7, 3, 6, 0]"] ;
40 -> 41 ;
42 [label="burning_micturition <= 0.5\ngini = 0.945\nsamples = 159\nvalue = [5, 0, 11, 6, 0, 6, 0, 9, 0, 6, 0, 7, 0, 5\n16, 0, 9, 13, 0, 0, 0, 0, 0, 10, 0, 0, 0, 5\n0, 0, 6, 7, 9, 7, 0, 6, 0, 7, 3, 6, 0]"] ;
41 -> 42 ;
43 [label="dehydration <= 0.5\ngini = 0.943\nsamples = 140\nvalue = [5, 0, 11, 6, 0, 6, 0, 9, 0, 6, 0, 7, 0, 5\n0, 0, 9, 13, 0, 0, 0, 0, 0, 10, 0, 0, 0, 5\n0, 0, 6, 7, 9, 7, 0, 6, 0, 7, 0, 6, 0]"] ;
42 -> 43 ;
44 [label="scurring <= 0.5\ngini = 0.941\nsamples = 127\nvalue = [5, 0, 11, 6, 0, 6, 0, 9, 0, 6, 0, 7, 0, 5\n0, 0, 9, 0, 0, 0, 0, 0, 0, 10, 0, 0, 0, 5\n0, 0, 6, 7, 9, 7, 0, 6, 0, 7, 0, 6, 0]"] ;
43 -> 44 ;
45 [label="dizziness <= 0.5\ngini = 0.938\nsamples = 116\nvalue = [5, 0, 0, 6, 0, 6, 0, 9, 0, 6, 0, 7, 0, 5\n0, 0, 9, 0, 0, 0, 0, 0, 0, 10, 0, 0, 0, 5\n0, 0, 6, 7, 9, 7, 0, 6, 0, 7, 0, 6, 0]"] ;
44 -> 45 ;
46 [label="chest_pain <= 0.5\ngini = 0.931\nsamples = 97\nvalue = [5, 0, 0, 6, 0, 6, 0, 0, 0, 6, 0, 7, 0, 5\n0, 0, 9, 0, 0, 0, 0, 0, 0, 0, 0, 0, 0, 5\n0, 0, 6, 7, 9, 7, 0, 6, 0, 7, 0, 6, 0]"] ;
45 -> 46 ;
47 [label="weakness_of_one_body_side <= 0.5\ngini = 0.927\nsamples = 88\nvalue = [5, 0, 0, 6, 0, 6, 0, 0, 0, 6, 0, 7, 0, 5\n0, 0, 0, 0, 0, 0, 0, 0, 0, 0, 0, 0, 0, 5\n0, 0, 6, 7, 9, 7, 0, 6, 0, 7, 0, 6, 0]"] ;
46 -> 47 ;
48 [label="belly_pain <= 0.5\ngini = 0.922\nsamples = 79\nvalue = [5, 0, 0, 6, 0, 6, 0, 0, 0, 6, 0, 7, 0, 5\n0, 0, 0, 0, 0, 0, 0, 0, 0, 0, 0, 0, 0, 5\n0, 0, 6, 7, 0, 7, 0, 6, 0, 7, 0, 6, 0]"] ;
47 -> 48 ;
49 [label="hip_joint_pain <= 0.5\ngini = 0.916\nsamples = 72\nvalue = [5, 0, 0, 6, 0, 6, 0, 0, 0, 6, 0, 7, 0, 5\n0, 0, 0, 0, 0, 0, 0, 0, 0, 0, 0, 0, 0, 5\n0, 0, 6, 7, 0, 7, 0, 6, 0, 0, 0, 6, 0]"] ;
48 -> 49 ;
50 [label="passage_of_gases <= 0.5\ngini = 0.908\nsamples = 65\nvalue = [5, 0, 0, 6, 0, 6, 0, 0, 0, 6, 0, 7, 0, 5\n0, 0, 0, 0, 0, 0, 0, 0, 0, 0, 0, 0, 0, 5\n0, 0, 6, 0, 0, 7, 0, 6, 0, 0, 0, 6, 0]"] ;
49 -> 50 ;
51 [label="malaise <= 0.5\ngini = 0.899\nsamples = 58\nvalue = [5, 0, 0, 6, 0, 6, 0, 0, 0, 6, 0, 7, 0, 5\n0, 0, 0, 0, 0, 0, 0, 0, 0, 0, 0, 0, 0, 5\n0, 0, 6, 0, 0, 0, 0, 6, 0, 0, 0, 6, 0]"] ;
50 -> 51 ;
52 [label="swollen_legs <= 0.5\ngini = 0.888\nsamples = 51\nvalue = [5, 0, 0, 6, 0, 6, 0, 0, 0, 6, 0, 0, 0, 5\n0, 0, 0, 0, 0, 0, 0, 0, 0, 0, 0, 0, 0, 5\n0, 0, 6, 0, 0, 0, 0, 6, 0, 0, 0, 6, 0]"] ;
51 -> 52 ;
53 [label="inflammatory_nails <= 0.5\ngini = 0.874\nsamples = 45\nvalue = [5, 0, 0, 6, 0, 6, 0, 0, 0, 6, 0, 0, 0, 5\n0, 0, 0, 0, 0, 0, 0, 0, 0, 0, 0, 0, 0, 5\n0, 0, 6, 0, 0, 0, 0, 6, 0, 0, 0, 0, 0]"] ;
52 -> 53 ;
54 [label="blurred_and_distorted_vision <= 0.5\ngini = 0.856\nsamples = 39\nvalue = [5, 0, 0, 6, 0, 6, 0, 0, 0, 6, 0, 0, 0, 5\n0, 0, 0, 0, 0, 0, 0, 0, 0, 0, 0, 0, 0, 5\n0, 0, 6, 0, 0, 0, 0, 0, 0, 0, 0, 0, 0]"] ;
53 -> 54 ;
55 [label="itching <= 0.5\ngini = 0.832\nsamples = 33\nvalue = [5, 0, 0, 6, 0, 6, 0, 0, 0, 6, 0, 0, 0, 5\n0, 0, 0, 0, 0, 0, 0, 0, 0, 0, 0, 0, 0, 5\n0, 0, 0, 0, 0, 0, 0, 0, 0, 0, 0, 0, 0]"] ;
54 -> 55 ;
56 [label="yellowish_skin <= 0.5\ngini = 0.798\nsamples = 27\nvalue = [5, 0, 0, 6, 0, 6, 0, 0, 0, 0, 0, 0, 0, 5\n0, 0, 0, 0, 0, 0, 0, 0, 0, 0, 0, 0, 0, 5\n0, 0, 0, 0, 0, 0, 0, 0, 0, 0, 0, 0, 0]"] ;
55 -> 56 ;
57 [label="muscle_weakness <= 0.5\ngini = 0.748\nsamples = 21\nvalue = [5, 0, 0, 0, 0, 6, 0, 0, 0, 0, 0, 0, 0, 5\n0, 0, 0, 0, 0, 0, 0, 0, 0, 0, 0, 0, 0, 5\n0, 0, 0, 0, 0, 0, 0, 0, 0, 0, 0, 0, 0]"] ;
56 -> 57 ;
58 [label="spinning_movements <= 0.5\ngini = 0.667\nsamples = 15\nvalue = [5, 0, 0, 0, 0, 0, 0, 0, 0, 0, 0, 0, 0, 5\n0, 0, 0, 0, 0, 0, 0, 0, 0, 0, 0, 0, 0, 5\n0, 0, 0, 0, 0, 0, 0, 0, 0, 0, 0, 0, 0]"] ;
57 -> 58 ;
59 [label="pain_in_anal_region <= 0.5\ngini = 0.5\nsamples = 10\nvalue = [0, 0, 0, 0, 0, 0, 0, 0, 0, 0, 0, 0, 0, 5\n0, 0, 0, 0, 0, 0, 0, 0, 0, 0, 0, 0, 0, 5\n0, 0, 0, 0, 0, 0, 0, 0, 0, 0, 0, 0, 0]"] ;
58 -> 59 ;
60 [label="gini = 0.0\nsamples = 5\nvalue = [0, 0, 0, 0, 0, 0, 0, 0, 0, 0, 0, 0, 0, 0\n0, 0, 0, 0, 0, 0, 0, 0, 0, 0, 0, 0, 0, 5\n0, 0, 0, 0, 0, 0, 0, 0, 0, 0, 0, 0, 0]"] ;
59 -> 60 ;
61 [label="gini = 0.0\nsamples = 5\nvalue = [0, 0, 0, 0, 0, 0, 0, 0, 0, 0, 0, 0, 0, 5\n0, 0, 0, 0, 0, 0, 0, 0, 0, 0, 0, 0, 0, 0\n0, 0, 0, 0, 0, 0, 0, 0, 0, 0, 0, 0, 0]"] ;
59 -> 61 ;
62 [label="gini = 0.0\nsamples = 5\nvalue = [5, 0, 0, 0, 0, 0, 0, 0, 0, 0, 0, 0, 0, 0\n0, 0, 0, 0, 0, 0, 0, 0, 0, 0, 0, 0, 0, 0\n0, 0, 0, 0, 0, 0, 0, 0, 0, 0, 0, 0, 0]"] ;
58 -> 62 ;
63 [label="gini = 0.0\nsamples = 6\nvalue = [0, 0, 0, 0, 0, 6, 0, 0, 0, 0, 0, 0, 0, 0\n0, 0, 0, 0, 0, 0, 0, 0, 0, 0, 0, 0, 0, 0\n0, 0, 0, 0, 0, 0, 0, 0, 0, 0, 0, 0, 0]"] ;
57 -> 63 ;
64 [label="gini = 0.0\nsamples = 6\nvalue = [0, 0, 0, 6, 0, 0, 0, 0, 0, 0, 0, 0, 0, 0\n0, 0, 0, 0, 0, 0, 0, 0, 0, 0, 0, 0, 0, 0\n0, 0, 0, 0, 0, 0, 0, 0, 0, 0, 0, 0, 0]"] ;
56 -> 64 ;
65 [label="gini = 0.0\nsamples = 6\nvalue = [0, 0, 0, 0, 0, 0, 0, 0, 0, 6, 0, 0, 0, 0\n0, 0, 0, 0, 0, 0, 0, 0, 0, 0, 0, 0, 0, 0\n0, 0, 0, 0, 0, 0, 0, 0, 0, 0, 0, 0, 0]"] ;
55 -> 65 ;
66 [label="gini = 0.0\nsamples = 6\nvalue = [0, 0, 0, 0, 0, 0, 0, 0, 0, 0, 0, 0, 0, 0\n0, 0, 0, 0, 0, 0, 0, 0, 0, 0, 0, 0, 0, 0\n0, 0, 6, 0, 0, 0, 0, 0, 0, 0, 0, 0, 0]"] ;
54 -> 66 ;
67 [label="gini = 0.0\nsamples = 6\nvalue = [0, 0, 0, 0, 0, 0, 0, 0, 0, 0, 0, 0, 0, 0\n0, 0, 0, 0, 0, 0, 0, 0, 0, 0, 0, 0, 0, 0\n0, 0, 0, 0, 0, 0, 0, 6, 0, 0, 0, 0, 0]"] ;
53 -> 67 ;
68 [label="gini = 0.0\nsamples = 6\nvalue = [0, 0, 0, 0, 0, 0, 0, 0, 0, 0, 0, 0, 0, 0\n0, 0, 0, 0, 0, 0, 0, 0, 0, 0, 0, 0, 0, 0\n0, 0, 0, 0, 0, 0, 0, 0, 0, 0, 0, 6, 0]"] ;
52 -> 68 ;
69 [label="gini = 0.0\nsamples = 7\nvalue = [0, 0, 0, 0, 0, 0, 0, 0, 0, 0, 0, 7, 0, 0\n0, 0, 0, 0, 0, 0, 0, 0, 0, 0, 0, 0, 0, 0\n0, 0, 0, 0, 0, 0, 0, 0, 0, 0, 0, 0, 0]"] ;
51 -> 69 ;
70 [label="gini = 0.0\nsamples = 7\nvalue = [0, 0, 0, 0, 0, 0, 0, 0, 0, 0, 0, 0, 0, 0\n0, 0, 0, 0, 0, 0, 0, 0, 0, 0, 0, 0, 0, 0\n0, 0, 0, 0, 0, 7, 0, 0, 0, 0, 0, 0, 0]"] ;
50 -> 70 ;
71 [label="gini = 0.0\nsamples = 7\nvalue = [0, 0, 0, 0, 0, 0, 0, 0, 0, 0, 0, 0, 0, 0\n0, 0, 0, 0, 0, 0, 0, 0, 0, 0, 0, 0, 0, 0\n0, 0, 0, 7, 0, 0, 0, 0, 0, 0, 0, 0, 0]"] ;
49 -> 71 ;
72 [label="gini = 0.0\nsamples = 7\nvalue = [0, 0, 0, 0, 0, 0, 0, 0, 0, 0, 0, 0, 0, 0\n0, 0, 0, 0, 0, 0, 0, 0, 0, 0, 0, 0, 0, 0\n0, 0, 0, 0, 0, 0, 0, 0, 0, 7, 0, 0, 0]"] ;
48 -> 72 ;
73 [label="gini = 0.0\nsamples = 9\nvalue = [0, 0, 0, 0, 0, 0, 0, 0, 0, 0, 0, 0, 0, 0\n0, 0, 0, 0, 0, 0, 0, 0, 0, 0, 0, 0, 0, 0\n0, 0, 0, 0, 9, 0, 0, 0, 0, 0, 0, 0, 0]"] ;
47 -> 73 ;
74 [label="gini = 0.0\nsamples = 9\nvalue = [0, 0, 0, 0, 0, 0, 0, 0, 0, 0, 0, 0, 0, 0\n0, 0, 9, 0, 0, 0, 0, 0, 0, 0, 0, 0, 0, 0\n0, 0, 0, 0, 0, 0, 0, 0, 0, 0, 0, 0, 0]"] ;
46 -> 74 ;
75 [label="headache <= 0.5\ngini = 0.499\nsamples = 19\nvalue = [0, 0, 0, 0, 0, 0, 0, 9, 0, 0, 0, 0, 0, 0\n0, 0, 0, 0, 0, 0, 0, 0, 0, 10, 0, 0, 0, 0\n0, 0, 0, 0, 0, 0, 0, 0, 0, 0, 0, 0, 0]"] ;
45 -> 75 ;
76 [label="gini = 0.0\nsamples = 9\nvalue = [0, 0, 0, 0, 0, 0, 0, 9, 0, 0, 0, 0, 0, 0\n0, 0, 0, 0, 0, 0, 0, 0, 0, 0, 0, 0, 0, 0\n0, 0, 0, 0, 0, 0, 0, 0, 0, 0, 0, 0, 0]"] ;
75 -> 76 ;
77 [label="gini = 0.0\nsamples = 10\nvalue = [0, 0, 0, 0, 0, 0, 0, 0, 0, 0, 0, 0, 0, 0\n0, 0, 0, 0, 0, 0, 0, 0, 0, 10, 0, 0, 0, 0\n0, 0, 0, 0, 0, 0, 0, 0, 0, 0, 0, 0, 0]"] ;
75 -> 77 ;
78 [label="gini = 0.0\nsamples = 11\nvalue = [0, 0, 11, 0, 0, 0, 0, 0, 0, 0, 0, 0, 0, 0\n0, 0, 0, 0, 0, 0, 0, 0, 0, 0, 0, 0, 0, 0\n0, 0, 0, 0, 0, 0, 0, 0, 0, 0, 0, 0, 0]"] ;
44 -> 78 ;
79 [label="gini = 0.0\nsamples = 13\nvalue = [0, 0, 0, 0, 0, 0, 0, 0, 0, 0, 0, 0, 0, 0\n0, 0, 0, 13, 0, 0, 0, 0, 0, 0, 0, 0, 0, 0\n0, 0, 0, 0, 0, 0, 0, 0, 0, 0, 0, 0, 0]"] ;
43 -> 79 ;
80 [label="stomach_pain <= 0.5\ngini = 0.266\nsamples = 19\nvalue = [0, 0, 0, 0, 0, 0, 0, 0, 0, 0, 0, 0, 0, 0\n16, 0, 0, 0, 0, 0, 0, 0, 0, 0, 0, 0, 0, 0\n0, 0, 0, 0, 0, 0, 0, 0, 0, 0, 3, 0, 0]"] ;
42 -> 80 ;
81 [label="gini = 0.0\nsamples = 3\nvalue = [0, 0, 0, 0, 0, 0, 0, 0, 0, 0, 0, 0, 0, 0\n0, 0, 0, 0, 0, 0, 0, 0, 0, 0, 0, 0, 0, 0\n0, 0, 0, 0, 0, 0, 0, 0, 0, 0, 3, 0, 0]"] ;
80 -> 81 ;
82 [label="gini = 0.0\nsamples = 16\nvalue = [0, 0, 0, 0, 0, 0, 0, 0, 0, 0, 0, 0, 0, 0\n16, 0, 0, 0, 0, 0, 0, 0, 0, 0, 0, 0, 0, 0\n0, 0, 0, 0, 0, 0, 0, 0, 0, 0, 0, 0, 0]"] ;
80 -> 82 ;
83 [label="gini = 0.0\nsamples = 14\nvalue = [0, 14, 0, 0, 0, 0, 0, 0, 0, 0, 0, 0, 0, 0\n0, 0, 0, 0, 0, 0, 0, 0, 0, 0, 0, 0, 0, 0\n0, 0, 0, 0, 0, 0, 0, 0, 0, 0, 0, 0, 0]"] ;
41 -> 83 ;
84 [label="gini = 0.0\nsamples = 16\nvalue = [0, 0, 0, 0, 0, 0, 0, 0, 0, 0, 0, 0, 0, 0\n0, 16, 0, 0, 0, 0, 0, 0, 0, 0, 0, 0, 0, 0\n0, 0, 0, 0, 0, 0, 0, 0, 0, 0, 0, 0, 0]"] ;
40 -> 84 ;
85 [label="gini = 0.0\nsamples = 16\nvalue = [0, 0, 0, 0, 0, 0, 0, 0, 0, 0, 0, 0, 0, 0\n0, 0, 0, 0, 16, 0, 0, 0, 0, 0, 0, 0, 0, 0\n0, 0, 0, 0, 0, 0, 0, 0, 0, 0, 0, 0, 0]"] ;
39 -> 85 ;
86 [label="gini = 0.0\nsamples = 17\nvalue = [0, 0, 0, 0, 17, 0, 0, 0, 0, 0, 0, 0, 0, 0\n0, 0, 0, 0, 0, 0, 0, 0, 0, 0, 0, 0, 0, 0\n0, 0, 0, 0, 0, 0, 0, 0, 0, 0, 0, 0, 0]"] ;
38 -> 86 ;
87 [label="gini = 0.0\nsamples = 135\nvalue = [0, 135, 0, 0, 0, 0, 0, 0, 0, 0, 0, 0, 0, 0\n0, 0, 0, 0, 0, 0, 0, 0, 0, 0, 0, 0, 0, 0\n0, 0, 0, 0, 0, 0, 0, 0, 0, 0, 0, 0, 0]"] ;
37 -> 87 ;
88 [label="fatigue <= 0.5\ngini = 0.19\nsamples = 175\nvalue = [0, 0, 0, 0, 0, 0, 0, 0, 0, 157, 0, 0, 0, 0\n0, 0, 0, 0, 0, 0, 9, 9, 0, 0, 0, 0, 0, 0\n0, 0, 0, 0, 0, 0, 0, 0, 0, 0, 0, 0, 0]"] ;
36 -> 88 ;
89 [label="gini = 0.0\nsamples = 157\nvalue = [0, 0, 0, 0, 0, 0, 0, 0, 0, 157, 0, 0, 0, 0\n0, 0, 0, 0, 0, 0, 0, 0, 0, 0, 0, 0, 0, 0\n0, 0, 0, 0, 0, 0, 0, 0, 0, 0, 0, 0, 0]"] ;
88 -> 89 ;
90 [label="abdominal_pain <= 0.5\ngini = 0.5\nsamples = 18\nvalue = [0, 0, 0, 0, 0, 0, 0, 0, 0, 0, 0, 0, 0, 0\n0, 0, 0, 0, 0, 0, 9, 9, 0, 0, 0, 0, 0, 0\n0, 0, 0, 0, 0, 0, 0, 0, 0, 0, 0, 0, 0]"] ;
88 -> 90 ;
91 [label="gini = 0.0\nsamples = 9\nvalue = [0, 0, 0, 0, 0, 0, 0, 0, 0, 0, 0, 0, 0, 0\n0, 0, 0, 0, 0, 0, 9, 0, 0, 0, 0, 0, 0, 0\n0, 0, 0, 0, 0, 0, 0, 0, 0, 0, 0, 0, 0]"] ;
90 -> 91 ;
92 [label="gini = 0.0\nsamples = 9\nvalue = [0, 0, 0, 0, 0, 0, 0, 0, 0, 0, 0, 0, 0, 0\n0, 0, 0, 0, 0, 0, 0, 9, 0, 0, 0, 0, 0, 0\n0, 0, 0, 0, 0, 0, 0, 0, 0, 0, 0, 0, 0]"] ;
90 -> 92 ;
93 [label="itching <= 0.5\ngini = 0.09\nsamples = 149\nvalue = [0, 0, 0, 0, 0, 0, 0, 0, 0, 0, 0, 0, 0, 0\n0, 0, 0, 0, 0, 0, 0, 142, 0, 0, 0, 0, 0, 0\n7, 0, 0, 0, 0, 0, 0, 0, 0, 0, 0, 0, 0]"] ;
35 -> 93 ;
94 [label="gini = 0.0\nsamples = 142\nvalue = [0, 0, 0, 0, 0, 0, 0, 0, 0, 0, 0, 0, 0, 0\n0, 0, 0, 0, 0, 0, 0, 142, 0, 0, 0, 0, 0, 0\n0, 0, 0, 0, 0, 0, 0, 0, 0, 0, 0, 0, 0]"] ;
93 -> 94 ;
95 [label="gini = 0.0\nsamples = 7\nvalue = [0, 0, 0, 0, 0, 0, 0, 0, 0, 0, 0, 0, 0, 0\n0, 0, 0, 0, 0, 0, 0, 0, 0, 0, 0, 0, 0, 0\n7, 0, 0, 0, 0, 0, 0, 0, 0, 0, 0, 0, 0]"] ;
93 -> 95 ;
96 [label="gini = 0.0\nsamples = 140\nvalue = [0, 0, 0, 0, 0, 0, 0, 0, 0, 0, 0, 0, 0, 0\n0, 140, 0, 0, 0, 0, 0, 0, 0, 0, 0, 0, 0, 0\n0, 0, 0, 0, 0, 0, 0, 0, 0, 0, 0, 0, 0]"] ;
34 -> 96 ;
97 [label="gini = 0.0\nsamples = 139\nvalue = [0, 0, 0, 0, 0, 0, 0, 0, 0, 0, 0, 0, 0, 0\n0, 0, 0, 139, 0, 0, 0, 0, 0, 0, 0, 0, 0, 0\n0, 0, 0, 0, 0, 0, 0, 0, 0, 0, 0, 0, 0]"] ;
33 -> 97 ;
98 [label="gini = 0.0\nsamples = 138\nvalue = [0, 0, 0, 0, 0, 0, 0, 0, 0, 0, 0, 0, 0, 0\n0, 0, 0, 0, 0, 0, 0, 0, 0, 0, 0, 0, 0, 0\n0, 0, 0, 0, 0, 0, 0, 0, 0, 0, 0, 138, 0]"] ;
32 -> 98 ;
99 [label="gini = 0.0\nsamples = 144\nvalue = [0, 0, 0, 0, 0, 0, 0, 0, 0, 0, 0, 0, 0, 0\n144, 0, 0, 0, 0, 0, 0, 0, 0, 0, 0, 0, 0, 0\n0, 0, 0, 0, 0, 0, 0, 0, 0, 0, 0, 0, 0]"] ;
31 -> 99 ;
100 [label="gini = 0.0\nsamples = 143\nvalue = [0, 0, 143, 0, 0, 0, 0, 0, 0, 0, 0, 0, 0, 0\n0, 0, 0, 0, 0, 0, 0, 0, 0, 0, 0, 0, 0, 0\n0, 0, 0, 0, 0, 0, 0, 0, 0, 0, 0, 0, 0]"] ;
30 -> 100 ;
101 [label="gini = 0.0\nsamples = 142\nvalue = [0, 0, 0, 0, 0, 0, 0, 0, 0, 0, 0, 0, 0, 0\n0, 0, 0, 0, 0, 0, 0, 0, 0, 0, 0, 142, 0, 0\n0, 0, 0, 0, 0, 0, 0, 0, 0, 0, 0, 0, 0]"] ;
29 -> 101 ;
102 [label="gini = 0.0\nsamples = 145\nvalue = [0, 0, 0, 0, 0, 0, 0, 0, 0, 0, 0, 0, 0, 0\n0, 0, 0, 0, 0, 0, 0, 0, 0, 145, 0, 0, 0, 0\n0, 0, 0, 0, 0, 0, 0, 0, 0, 0, 0, 0, 0]"] ;
28 -> 102 ;
103 [label="gini = 0.0\nsamples = 150\nvalue = [0, 0, 0, 0, 0, 0, 0, 0, 0, 0, 0, 0, 0, 0\n0, 0, 150, 0, 0, 0, 0, 0, 0, 0, 0, 0, 0, 0\n0, 0, 0, 0, 0, 0, 0, 0, 0, 0, 0, 0, 0]"] ;
27 -> 103 ;
104 [label="mucoid_sputum <= 0.5\ngini = 0.114\nsamples = 165\nvalue = [0, 0, 0, 0, 0, 0, 10, 0, 0, 0, 0, 0, 0, 0\n0, 0, 0, 0, 0, 0, 155, 0, 0, 0, 0, 0, 0, 0\n0, 0, 0, 0, 0, 0, 0, 0, 0, 0, 0, 0, 0]"] ;
26 -> 104 ;
105 [label="gini = 0.0\nsamples = 155\nvalue = [0, 0, 0, 0, 0, 0, 0, 0, 0, 0, 0, 0, 0, 0\n0, 0, 0, 0, 0, 0, 155, 0, 0, 0, 0, 0, 0, 0\n0, 0, 0, 0, 0, 0, 0, 0, 0, 0, 0, 0, 0]"] ;
104 -> 105 ;
106 [label="gini = 0.0\nsamples = 10\nvalue = [0, 0, 0, 0, 0, 0, 10, 0, 0, 0, 0, 0, 0, 0\n0, 0, 0, 0, 0, 0, 0, 0, 0, 0, 0, 0, 0, 0\n0, 0, 0, 0, 0, 0, 0, 0, 0, 0, 0, 0, 0]"] ;
104 -> 106 ;
107 [label="gini = 0.0\nsamples = 149\nvalue = [0, 0, 0, 0, 0, 149, 0, 0, 0, 0, 0, 0, 0, 0\n0, 0, 0, 0, 0, 0, 0, 0, 0, 0, 0, 0, 0, 0\n0, 0, 0, 0, 0, 0, 0, 0, 0, 0, 0, 0, 0]"] ;
25 -> 107 ;
108 [label="high_fever <= 0.5\ngini = 0.499\nsamples = 305\nvalue = [0, 0, 0, 0, 0, 0, 145, 0, 0, 0, 0, 0, 0, 0\n0, 0, 0, 0, 160, 0, 0, 0, 0, 0, 0, 0, 0, 0\n0, 0, 0, 0, 0, 0, 0, 0, 0, 0, 0, 0, 0]"] ;
24 -> 108 ;
109 [label="family_history <= 0.5\ngini = 0.07\nsamples = 166\nvalue = [0, 0, 0, 0, 0, 0, 6, 0, 0, 0, 0, 0, 0, 0\n0, 0, 0, 0, 160, 0, 0, 0, 0, 0, 0, 0, 0, 0\n0, 0, 0, 0, 0, 0, 0, 0, 0, 0, 0, 0, 0]"] ;
108 -> 109 ;
110 [label="gini = 0.0\nsamples = 160\nvalue = [0, 0, 0, 0, 0, 0, 0, 0, 0, 0, 0, 0, 0, 0\n0, 0, 0, 0, 160, 0, 0, 0, 0, 0, 0, 0, 0, 0\n0, 0, 0, 0, 0, 0, 0, 0, 0, 0, 0, 0, 0]"] ;
109 -> 110 ;
111 [label="gini = 0.0\nsamples = 6\nvalue = [0, 0, 0, 0, 0, 0, 6, 0, 0, 0, 0, 0, 0, 0\n0, 0, 0, 0, 0, 0, 0, 0, 0, 0, 0, 0, 0, 0\n0, 0, 0, 0, 0, 0, 0, 0, 0, 0, 0, 0, 0]"] ;
109 -> 111 ;
112 [label="gini = 0.0\nsamples = 139\nvalue = [0, 0, 0, 0, 0, 0, 139, 0, 0, 0, 0, 0, 0, 0\n0, 0, 0, 0, 0, 0, 0, 0, 0, 0, 0, 0, 0, 0\n0, 0, 0, 0, 0, 0, 0, 0, 0, 0, 0, 0, 0]"] ;
108 -> 112 ;
113 [label="gini = 0.0\nsamples = 150\nvalue = [0, 0, 0, 0, 0, 0, 0, 0, 0, 0, 0, 0, 0, 0\n0, 0, 0, 0, 0, 0, 0, 0, 0, 0, 0, 0, 0, 150\n0, 0, 0, 0, 0, 0, 0, 0, 0, 0, 0, 0, 0]"] ;
23 -> 113 ;
114 [label="loss_of_appetite <= 0.5\ngini = 0.498\nsamples = 301\nvalue = [0, 0, 0, 0, 0, 0, 0, 0, 0, 0, 0, 140, 0, 0\n0, 0, 0, 0, 0, 0, 0, 0, 0, 0, 0, 0, 0, 0\n0, 161, 0, 0, 0, 0, 0, 0, 0, 0, 0, 0, 0]"] ;
22 -> 114 ;
115 [label="gini = 0.0\nsamples = 161\nvalue = [0, 0, 0, 0, 0, 0, 0, 0, 0, 0, 0, 0, 0, 0\n0, 0, 0, 0, 0, 0, 0, 0, 0, 0, 0, 0, 0, 0\n0, 161, 0, 0, 0, 0, 0, 0, 0, 0, 0, 0, 0]"] ;
114 -> 115 ;
116 [label="gini = 0.0\nsamples = 140\nvalue = [0, 0, 0, 0, 0, 0, 0, 0, 0, 0, 0, 140, 0, 0\n0, 0, 0, 0, 0, 0, 0, 0, 0, 0, 0, 0, 0, 0\n0, 0, 0, 0, 0, 0, 0, 0, 0, 0, 0, 0, 0]"] ;
114 -> 116 ;
117 [label="gini = 0.0\nsamples = 153\nvalue = [0, 0, 0, 0, 153, 0, 0, 0, 0, 0, 0, 0, 0, 0\n0, 0, 0, 0, 0, 0, 0, 0, 0, 0, 0, 0, 0, 0\n0, 0, 0, 0, 0, 0, 0, 0, 0, 0, 0, 0, 0]"] ;
21 -> 117 ;
118 [label="gini = 0.0\nsamples = 153\nvalue = [0, 0, 0, 153, 0, 0, 0, 0, 0, 0, 0, 0, 0, 0\n0, 0, 0, 0, 0, 0, 0, 0, 0, 0, 0, 0, 0, 0\n0, 0, 0, 0, 0, 0, 0, 0, 0, 0, 0, 0, 0]"] ;
20 -> 118 ;
119 [label="gini = 0.0\nsamples = 154\nvalue = [0, 0, 0, 0, 0, 0, 0, 0, 0, 0, 0, 0, 0, 0\n0, 0, 0, 0, 0, 0, 0, 0, 0, 0, 0, 0, 0, 0\n0, 0, 0, 0, 0, 154, 0, 0, 0, 0, 0, 0, 0]"] ;
19 -> 119 ;
120 [label="dizziness <= 0.5\ngini = 0.5\nsamples = 310\nvalue = [0, 0, 0, 0, 0, 0, 0, 159, 0, 0, 0, 0, 0, 0\n0, 0, 0, 0, 0, 0, 0, 0, 0, 0, 0, 0, 0, 0\n0, 0, 0, 151, 0, 0, 0, 0, 0, 0, 0, 0, 0]"] ;
18 -> 120 ;
121 [label="loss_of_balance <= 0.5\ngini = 0.062\nsamples = 156\nvalue = [0, 0, 0, 0, 0, 0, 0, 5, 0, 0, 0, 0, 0, 0\n0, 0, 0, 0, 0, 0, 0, 0, 0, 0, 0, 0, 0, 0\n0, 0, 0, 151, 0, 0, 0, 0, 0, 0, 0, 0, 0]"] ;
120 -> 121 ;
122 [label="gini = 0.0\nsamples = 151\nvalue = [0, 0, 0, 0, 0, 0, 0, 0, 0, 0, 0, 0, 0, 0\n0, 0, 0, 0, 0, 0, 0, 0, 0, 0, 0, 0, 0, 0\n0, 0, 0, 151, 0, 0, 0, 0, 0, 0, 0, 0, 0]"] ;
121 -> 122 ;
123 [label="gini = 0.0\nsamples = 5\nvalue = [0, 0, 0, 0, 0, 0, 0, 5, 0, 0, 0, 0, 0, 0\n0, 0, 0, 0, 0, 0, 0, 0, 0, 0, 0, 0, 0, 0\n0, 0, 0, 0, 0, 0, 0, 0, 0, 0, 0, 0, 0]"] ;
121 -> 123 ;
124 [label="gini = 0.0\nsamples = 154\nvalue = [0, 0, 0, 0, 0, 0, 0, 154, 0, 0, 0, 0, 0, 0\n0, 0, 0, 0, 0, 0, 0, 0, 0, 0, 0, 0, 0, 0\n0, 0, 0, 0, 0, 0, 0, 0, 0, 0, 0, 0, 0]"] ;
120 -> 124 ;
125 [label="gini = 0.0\nsamples = 155\nvalue = [0, 0, 0, 0, 0, 0, 0, 0, 0, 0, 0, 0, 0, 0\n0, 0, 0, 0, 0, 0, 0, 0, 0, 0, 0, 0, 0, 0\n0, 0, 0, 0, 0, 0, 0, 0, 0, 155, 0, 0, 0]"] ;
17 -> 125 ;
126 [label="swelled_lymph_nodes <= 0.5\ngini = 0.079\nsamples = 169\nvalue = [0, 0, 0, 0, 0, 0, 0, 0, 7, 0, 0, 0, 0, 0\n0, 0, 0, 0, 0, 0, 0, 0, 0, 0, 0, 0, 0, 0\n0, 0, 0, 0, 0, 0, 0, 0, 0, 0, 0, 0, 162]"] ;
16 -> 126 ;
127 [label="gini = 0.0\nsamples = 162\nvalue = [0, 0, 0, 0, 0, 0, 0, 0, 0, 0, 0, 0, 0, 0\n0, 0, 0, 0, 0, 0, 0, 0, 0, 0, 0, 0, 0, 0\n0, 0, 0, 0, 0, 0, 0, 0, 0, 0, 0, 0, 162]"] ;
126 -> 127 ;
128 [label="gini = 0.0\nsamples = 7\nvalue = [0, 0, 0, 0, 0, 0, 0, 0, 7, 0, 0, 0, 0, 0\n0, 0, 0, 0, 0, 0, 0, 0, 0, 0, 0, 0, 0, 0\n0, 0, 0, 0, 0, 0, 0, 0, 0, 0, 0, 0, 0]"] ;
126 -> 128 ;
129 [label="gini = 0.0\nsamples = 156\nvalue = [156, 0, 0, 0, 0, 0, 0, 0, 0, 0, 0, 0, 0, 0\n0, 0, 0, 0, 0, 0, 0, 0, 0, 0, 0, 0, 0, 0\n0, 0, 0, 0, 0, 0, 0, 0, 0, 0, 0, 0, 0]"] ;
15 -> 129 ;
130 [label="gini = 0.0\nsamples = 157\nvalue = [0, 0, 0, 0, 0, 0, 0, 0, 0, 0, 157, 0, 0, 0\n0, 0, 0, 0, 0, 0, 0, 0, 0, 0, 0, 0, 0, 0\n0, 0, 0, 0, 0, 0, 0, 0, 0, 0, 0, 0, 0]"] ;
14 -> 130 ;
131 [label="gini = 0.0\nsamples = 158\nvalue = [0, 0, 0, 0, 0, 0, 0, 0, 158, 0, 0, 0, 0, 0\n0, 0, 0, 0, 0, 0, 0, 0, 0, 0, 0, 0, 0, 0\n0, 0, 0, 0, 0, 0, 0, 0, 0, 0, 0, 0, 0]"] ;
13 -> 131 ;
132 [label="gini = 0.0\nsamples = 158\nvalue = [0, 0, 0, 0, 0, 0, 0, 0, 0, 0, 0, 0, 0, 0\n0, 0, 0, 0, 0, 0, 0, 0, 0, 0, 0, 0, 0, 0\n0, 0, 158, 0, 0, 0, 0, 0, 0, 0, 0, 0, 0]"] ;
12 -> 132 ;
133 [label="gini = 0.0\nsamples = 159\nvalue = [0, 0, 0, 0, 0, 0, 0, 0, 0, 0, 0, 0, 0, 0\n0, 0, 0, 0, 0, 0, 0, 0, 0, 0, 0, 0, 0, 0\n0, 0, 0, 0, 0, 0, 0, 0, 0, 0, 159, 0, 0]"] ;
11 -> 133 ;
134 [label="gini = 0.0\nsamples = 160\nvalue = [0, 0, 0, 0, 0, 0, 0, 0, 0, 0, 0, 0, 0, 0\n0, 0, 0, 0, 0, 0, 0, 0, 0, 0, 0, 0, 0, 0\n0, 0, 0, 0, 0, 0, 0, 160, 0, 0, 0, 0, 0]"] ;
10 -> 134 ;
135 [label="gini = 0.0\nsamples = 161\nvalue = [0, 0, 0, 0, 0, 0, 0, 0, 0, 0, 0, 0, 0, 0\n0, 0, 0, 0, 0, 0, 0, 0, 0, 0, 0, 0, 0, 0\n0, 0, 0, 0, 0, 0, 161, 0, 0, 0, 0, 0, 0]"] ;
9 -> 135 ;
136 [label="gini = 0.0\nsamples = 162\nvalue = [0, 0, 0, 0, 0, 0, 0, 0, 0, 0, 0, 0, 0, 0\n0, 0, 0, 0, 0, 0, 0, 0, 0, 0, 0, 0, 0, 0\n162, 0, 0, 0, 0, 0, 0, 0, 0, 0, 0, 0, 0]"] ;
8 -> 136 ;
137 [label="gini = 0.0\nsamples = 161\nvalue = [0, 0, 0, 0, 0, 0, 0, 0, 0, 0, 0, 0, 161, 0\n0, 0, 0, 0, 0, 0, 0, 0, 0, 0, 0, 0, 0, 0\n0, 0, 0, 0, 0, 0, 0, 0, 0, 0, 0, 0, 0]"] ;
7 -> 137 ;
138 [label="gini = 0.0\nsamples = 163\nvalue = [0, 0, 0, 0, 0, 0, 0, 0, 0, 0, 0, 0, 0, 0\n0, 0, 0, 0, 0, 0, 0, 0, 0, 0, 0, 0, 0, 0\n0, 0, 0, 0, 163, 0, 0, 0, 0, 0, 0, 0, 0]"] ;
6 -> 138 ;
139 [label="gini = 0.0\nsamples = 164\nvalue = [0, 0, 0, 0, 0, 0, 0, 0, 0, 0, 0, 0, 0, 164\n0, 0, 0, 0, 0, 0, 0, 0, 0, 0, 0, 0, 0, 0\n0, 0, 0, 0, 0, 0, 0, 0, 0, 0, 0, 0, 0]"] ;
5 -> 139 ;
140 [label="gini = 0.0\nsamples = 164\nvalue = [0, 0, 0, 0, 0, 0, 0, 0, 0, 0, 0, 0, 0, 0\n0, 0, 0, 0, 0, 0, 0, 0, 0, 0, 0, 0, 0, 0\n0, 0, 0, 0, 0, 0, 0, 0, 164, 0, 0, 0, 0]"] ;
4 -> 140 ;
141 [label="gini = 0.0\nsamples = 165\nvalue = [0, 0, 0, 0, 0, 0, 0, 0, 0, 0, 0, 0, 0, 0\n0, 0, 0, 0, 0, 0, 0, 0, 0, 0, 165, 0, 0, 0\n0, 0, 0, 0, 0, 0, 0, 0, 0, 0, 0, 0, 0]"] ;
3 -> 141 ;
142 [label="gini = 0.0\nsamples = 170\nvalue = [0, 0, 0, 0, 0, 0, 0, 0, 0, 0, 0, 0, 0, 0\n0, 0, 0, 0, 0, 0, 0, 0, 0, 0, 0, 0, 170, 0\n0, 0, 0, 0, 0, 0, 0, 0, 0, 0, 0, 0, 0]"] ;
2 -> 142 ;
143 [label="gini = 0.0\nsamples = 172\nvalue = [0, 0, 0, 0, 0, 0, 0, 0, 0, 0, 0, 0, 0, 0\n0, 0, 0, 0, 0, 0, 0, 0, 172, 0, 0, 0, 0, 0\n0, 0, 0, 0, 0, 0, 0, 0, 0, 0, 0, 0, 0]"] ;
1 -> 143 ;
144 [label="gini = 0.0\nsamples = 178\nvalue = [0, 0, 0, 0, 0, 0, 0, 0, 0, 0, 0, 0, 0, 0\n0, 0, 0, 0, 0, 178, 0, 0, 0, 0, 0, 0, 0, 0\n0, 0, 0, 0, 0, 0, 0, 0, 0, 0, 0, 0, 0]"] ;
0 -> 144 [labeldistance=2.5, labelangle=-45, headlabel="False"] ;
}
